#pragma once
#include <cstdarg>
namespace Eloquent {
    namespace ML {
        namespace Port {
            class RandomForest {
                public:
                    /**
                    * Predict class for features vector
                    */
                    int predict(float *x) {
                        uint8_t votes[27] = { 0 };
                        // tree #1
                        if (x[5] <= 40.81500053405762) {
                            if (x[0] <= 27.5) {
                                if (x[19] <= 7.454999923706055) {
                                    if (x[13] <= 6.9049999713897705) {
                                        if (x[17] <= 1.2399999797344208) {
                                            if (x[9] <= -65.22999954223633) {
                                                if (x[6] <= -121.16499710083008) {
                                                    votes[26] += 1;
                                                }

                                                else {
                                                    votes[10] += 1;
                                                }
                                            }

                                            else {
                                                if (x[0] <= 13.5) {
                                                    votes[4] += 1;
                                                }

                                                else {
                                                    votes[26] += 1;
                                                }
                                            }
                                        }

                                        else {
                                            if (x[19] <= -1.6649999618530273) {
                                                votes[11] += 1;
                                            }

                                            else {
                                                if (x[10] <= 54.864999771118164) {
                                                    if (x[0] <= 1.0) {
                                                        if (x[5] <= -5.8450000286102295) {
                                                            if (x[18] <= -7.2149999141693115) {
                                                                votes[3] += 1;
                                                            }

                                                            else {
                                                                votes[20] += 1;
                                                            }
                                                        }

                                                        else {
                                                            votes[3] += 1;
                                                        }
                                                    }

                                                    else {
                                                        if (x[1] <= 29.5) {
                                                            if (x[7] <= 63.295000076293945) {
                                                                votes[22] += 1;
                                                            }

                                                            else {
                                                                votes[22] += 1;
                                                            }
                                                        }

                                                        else {
                                                            votes[21] += 1;
                                                        }
                                                    }
                                                }

                                                else {
                                                    if (x[1] <= 8.0) {
                                                        if (x[7] <= 47.52500057220459) {
                                                            votes[20] += 1;
                                                        }

                                                        else {
                                                            votes[17] += 1;
                                                        }
                                                    }

                                                    else {
                                                        votes[20] += 1;
                                                    }
                                                }
                                            }
                                        }
                                    }

                                    else {
                                        if (x[18] <= -3.25) {
                                            if (x[6] <= -43.630001068115234) {
                                                votes[11] += 1;
                                            }

                                            else {
                                                votes[22] += 1;
                                            }
                                        }

                                        else {
                                            votes[21] += 1;
                                        }
                                    }
                                }

                                else {
                                    if (x[9] <= -23.40999984741211) {
                                        if (x[15] <= 0.3500000089406967) {
                                            if (x[11] <= -0.16500000655651093) {
                                                votes[17] += 1;
                                            }

                                            else {
                                                if (x[18] <= -4.140000104904175) {
                                                    votes[20] += 1;
                                                }

                                                else {
                                                    votes[1] += 1;
                                                }
                                            }
                                        }

                                        else {
                                            if (x[13] <= 1.1500000059604645) {
                                                votes[20] += 1;
                                            }

                                            else {
                                                votes[17] += 1;
                                            }
                                        }
                                    }

                                    else {
                                        votes[1] += 1;
                                    }
                                }
                            }

                            else {
                                if (x[10] <= -13.490000247955322) {
                                    if (x[1] <= 24.0) {
                                        votes[24] += 1;
                                    }

                                    else {
                                        if (x[0] <= 66.5) {
                                            if (x[13] <= 1.0049998760223389) {
                                                votes[26] += 1;
                                            }

                                            else {
                                                votes[2] += 1;
                                            }
                                        }

                                        else {
                                            if (x[13] <= 0.934999942779541) {
                                                votes[26] += 1;
                                            }

                                            else {
                                                if (x[11] <= 3.540000081062317) {
                                                    votes[2] += 1;
                                                }

                                                else {
                                                    votes[25] += 1;
                                                }
                                            }
                                        }
                                    }
                                }

                                else {
                                    if (x[6] <= 71.94499969482422) {
                                        if (x[19] <= 8.755000114440918) {
                                            if (x[1] <= 32.5) {
                                                if (x[8] <= -25.789999961853027) {
                                                    if (x[7] <= 78.89500045776367) {
                                                        if (x[13] <= 7.454999923706055) {
                                                            if (x[12] <= 6.164999961853027) {
                                                                votes[14] += 1;
                                                            }

                                                            else {
                                                                votes[5] += 1;
                                                            }
                                                        }

                                                        else {
                                                            if (x[9] <= -55.90999984741211) {
                                                                votes[14] += 1;
                                                            }

                                                            else {
                                                                votes[5] += 1;
                                                            }
                                                        }
                                                    }

                                                    else {
                                                        if (x[8] <= -54.15500068664551) {
                                                            if (x[6] <= 17.4350004196167) {
                                                                votes[2] += 1;
                                                            }

                                                            else {
                                                                votes[5] += 1;
                                                            }
                                                        }

                                                        else {
                                                            if (x[3] <= 5.0) {
                                                                votes[5] += 1;
                                                            }

                                                            else {
                                                                votes[23] += 1;
                                                            }
                                                        }
                                                    }
                                                }

                                                else {
                                                    if (x[19] <= 5.25) {
                                                        if (x[0] <= 67.0) {
                                                            if (x[3] <= 10.0) {
                                                                votes[5] += 1;
                                                            }

                                                            else {
                                                                votes[19] += 1;
                                                            }
                                                        }

                                                        else {
                                                            if (x[1] <= -2.0) {
                                                                votes[0] += 1;
                                                            }

                                                            else {
                                                                votes[8] += 1;
                                                            }
                                                        }
                                                    }

                                                    else {
                                                        if (x[13] <= 6.75) {
                                                            if (x[4] <= 14.0) {
                                                                votes[8] += 1;
                                                            }

                                                            else {
                                                                votes[18] += 1;
                                                            }
                                                        }

                                                        else {
                                                            if (x[19] <= 6.025000095367432) {
                                                                votes[5] += 1;
                                                            }

                                                            else {
                                                                votes[13] += 1;
                                                            }
                                                        }
                                                    }
                                                }
                                            }

                                            else {
                                                if (x[13] <= 8.055000305175781) {
                                                    if (x[19] <= 5.109999895095825) {
                                                        if (x[13] <= 4.43500018119812) {
                                                            votes[26] += 1;
                                                        }

                                                        else {
                                                            if (x[0] <= 61.5) {
                                                                votes[15] += 1;
                                                            }

                                                            else {
                                                                votes[25] += 1;
                                                            }
                                                        }
                                                    }

                                                    else {
                                                        if (x[11] <= -3.3700000047683716) {
                                                            votes[9] += 1;
                                                        }

                                                        else {
                                                            votes[26] += 1;
                                                        }
                                                    }
                                                }

                                                else {
                                                    if (x[1] <= 44.5) {
                                                        if (x[5] <= -1.5799999572336674) {
                                                            votes[2] += 1;
                                                        }

                                                        else {
                                                            if (x[20] <= -0.2849999964237213) {
                                                                votes[15] += 1;
                                                            }

                                                            else {
                                                                votes[15] += 1;
                                                            }
                                                        }
                                                    }

                                                    else {
                                                        votes[25] += 1;
                                                    }
                                                }
                                            }
                                        }

                                        else {
                                            if (x[17] <= 2.415000081062317) {
                                                if (x[0] <= 49.5) {
                                                    votes[4] += 1;
                                                }

                                                else {
                                                    if (x[6] <= 37.2549991607666) {
                                                        votes[12] += 1;
                                                    }

                                                    else {
                                                        votes[18] += 1;
                                                    }
                                                }
                                            }

                                            else {
                                                if (x[15] <= -0.08500000089406967) {
                                                    if (x[4] <= 53.0) {
                                                        votes[12] += 1;
                                                    }

                                                    else {
                                                        votes[26] += 1;
                                                    }
                                                }

                                                else {
                                                    if (x[16] <= 1.274999976158142) {
                                                        if (x[13] <= 8.019999980926514) {
                                                            if (x[5] <= -26.520000457763672) {
                                                                votes[12] += 1;
                                                            }

                                                            else {
                                                                votes[4] += 1;
                                                            }
                                                        }

                                                        else {
                                                            votes[4] += 1;
                                                        }
                                                    }

                                                    else {
                                                        votes[26] += 1;
                                                    }
                                                }
                                            }
                                        }
                                    }

                                    else {
                                        if (x[17] <= 7.269999980926514) {
                                            if (x[1] <= 52.5) {
                                                if (x[17] <= 4.694999933242798) {
                                                    votes[0] += 1;
                                                }

                                                else {
                                                    if (x[4] <= 30.5) {
                                                        votes[8] += 1;
                                                    }

                                                    else {
                                                        if (x[9] <= -53.43499755859375) {
                                                            votes[0] += 1;
                                                        }

                                                        else {
                                                            if (x[21] <= 0.019999999552965164) {
                                                                votes[18] += 1;
                                                            }

                                                            else {
                                                                votes[16] += 1;
                                                            }
                                                        }
                                                    }
                                                }
                                            }

                                            else {
                                                votes[26] += 1;
                                            }
                                        }

                                        else {
                                            if (x[9] <= 44.375) {
                                                if (x[15] <= 0.5050000101327896) {
                                                    if (x[19] <= 0.5349999666213989) {
                                                        votes[24] += 1;
                                                    }

                                                    else {
                                                        votes[16] += 1;
                                                    }
                                                }

                                                else {
                                                    if (x[8] <= -50.16499900817871) {
                                                        votes[24] += 1;
                                                    }

                                                    else {
                                                        votes[26] += 1;
                                                    }
                                                }
                                            }

                                            else {
                                                votes[26] += 1;
                                            }
                                        }
                                    }
                                }
                            }
                        }

                        else {
                            if (x[11] <= -8.894999980926514) {
                                if (x[18] <= 4.325000047683716) {
                                    if (x[10] <= 85.90500259399414) {
                                        votes[6] += 1;
                                    }

                                    else {
                                        if (x[6] <= 119.86499786376953) {
                                            if (x[12] <= 4.440000057220459) {
                                                if (x[11] <= -9.494999885559082) {
                                                    if (x[8] <= -3.4000000953674316) {
                                                        votes[6] += 1;
                                                    }

                                                    else {
                                                        votes[9] += 1;
                                                    }
                                                }

                                                else {
                                                    votes[9] += 1;
                                                }
                                            }

                                            else {
                                                votes[26] += 1;
                                            }
                                        }

                                        else {
                                            votes[26] += 1;
                                        }
                                    }
                                }

                                else {
                                    if (x[21] <= -1.590000033378601) {
                                        votes[26] += 1;
                                    }

                                    else {
                                        if (x[12] <= 2.649999976158142) {
                                            votes[7] += 1;
                                        }

                                        else {
                                            votes[26] += 1;
                                        }
                                    }
                                }
                            }

                            else {
                                if (x[9] <= 15.389999389648438) {
                                    if (x[6] <= 123.05500030517578) {
                                        if (x[14] <= -0.9950000047683716) {
                                            if (x[10] <= 144.20000076293945) {
                                                votes[9] += 1;
                                            }

                                            else {
                                                votes[26] += 1;
                                            }
                                        }

                                        else {
                                            if (x[6] <= -64.71500092744827) {
                                                if (x[1] <= 41.5) {
                                                    votes[26] += 1;
                                                }

                                                else {
                                                    votes[6] += 1;
                                                }
                                            }

                                            else {
                                                if (x[17] <= 1.1899999864399433) {
                                                    votes[9] += 1;
                                                }

                                                else {
                                                    votes[26] += 1;
                                                }
                                            }
                                        }
                                    }

                                    else {
                                        if (x[7] <= -164.52000427246094) {
                                            votes[6] += 1;
                                        }

                                        else {
                                            votes[26] += 1;
                                        }
                                    }
                                }

                                else {
                                    if (x[21] <= 0.9399999976158142) {
                                        if (x[13] <= -2.034999966621399) {
                                            votes[26] += 1;
                                        }

                                        else {
                                            if (x[12] <= 3.690000057220459) {
                                                votes[7] += 1;
                                            }

                                            else {
                                                votes[26] += 1;
                                            }
                                        }
                                    }

                                    else {
                                        votes[26] += 1;
                                    }
                                }
                            }
                        }

                        // tree #2
                        if (x[11] <= -5.944999933242798) {
                            if (x[18] <= 3.4100000858306885) {
                                if (x[5] <= 82.15999984741211) {
                                    if (x[8] <= 41.5049991607666) {
                                        if (x[6] <= 129.7799949645996) {
                                            if (x[1] <= 56.0) {
                                                if (x[20] <= 1.0149999856948853) {
                                                    if (x[17] <= 0.6150000095367432) {
                                                        votes[9] += 1;
                                                    }

                                                    else {
                                                        if (x[16] <= 0.13000000268220901) {
                                                            votes[6] += 1;
                                                        }

                                                        else {
                                                            votes[9] += 1;
                                                        }
                                                    }
                                                }

                                                else {
                                                    votes[26] += 1;
                                                }
                                            }

                                            else {
                                                votes[26] += 1;
                                            }
                                        }

                                        else {
                                            votes[26] += 1;
                                        }
                                    }

                                    else {
                                        if (x[1] <= 42.5) {
                                            votes[9] += 1;
                                        }

                                        else {
                                            votes[26] += 1;
                                        }
                                    }
                                }

                                else {
                                    votes[6] += 1;
                                }
                            }

                            else {
                                if (x[5] <= 61.44499969482422) {
                                    if (x[10] <= 41.82499980926514) {
                                        votes[25] += 1;
                                    }

                                    else {
                                        votes[26] += 1;
                                    }
                                }

                                else {
                                    if (x[8] <= -2.790000081062317) {
                                        votes[7] += 1;
                                    }

                                    else {
                                        votes[9] += 1;
                                    }
                                }
                            }
                        }

                        else {
                            if (x[17] <= 4.644999980926514) {
                                if (x[19] <= 9.224999904632568) {
                                    if (x[0] <= 0.5) {
                                        if (x[7] <= 78.51499938964844) {
                                            if (x[8] <= -4.875) {
                                                if (x[10] <= 49.35000038146973) {
                                                    if (x[7] <= 49.01500129699707) {
                                                        votes[3] += 1;
                                                    }

                                                    else {
                                                        votes[11] += 1;
                                                    }
                                                }

                                                else {
                                                    votes[20] += 1;
                                                }
                                            }

                                            else {
                                                if (x[9] <= -34.35499954223633) {
                                                    votes[10] += 1;
                                                }

                                                else {
                                                    votes[9] += 1;
                                                }
                                            }
                                        }

                                        else {
                                            if (x[4] <= 9.5) {
                                                if (x[8] <= -23.72499942779541) {
                                                    votes[1] += 1;
                                                }

                                                else {
                                                    votes[17] += 1;
                                                }
                                            }

                                            else {
                                                if (x[8] <= -25.385000228881836) {
                                                    if (x[21] <= -0.04999999888241291) {
                                                        votes[11] += 1;
                                                    }

                                                    else {
                                                        if (x[22] <= -0.14499999769032001) {
                                                            votes[17] += 1;
                                                        }

                                                        else {
                                                            votes[1] += 1;
                                                        }
                                                    }
                                                }

                                                else {
                                                    if (x[5] <= -3.075000047683716) {
                                                        if (x[20] <= -0.08999999985098839) {
                                                            votes[20] += 1;
                                                        }

                                                        else {
                                                            votes[17] += 1;
                                                        }
                                                    }

                                                    else {
                                                        if (x[1] <= 9.5) {
                                                            votes[17] += 1;
                                                        }

                                                        else {
                                                            votes[20] += 1;
                                                        }
                                                    }
                                                }
                                            }
                                        }
                                    }

                                    else {
                                        if (x[12] <= 5.020000219345093) {
                                            if (x[19] <= 5.954999923706055) {
                                                if (x[18] <= -8.704999923706055) {
                                                    if (x[21] <= 0.3200000077486038) {
                                                        if (x[3] <= 5.0) {
                                                            if (x[14] <= -0.17499999701976776) {
                                                                votes[5] += 1;
                                                            }

                                                            else {
                                                                votes[19] += 1;
                                                            }
                                                        }

                                                        else {
                                                            votes[19] += 1;
                                                        }
                                                    }

                                                    else {
                                                        if (x[17] <= 2.399999976158142) {
                                                            votes[19] += 1;
                                                        }

                                                        else {
                                                            votes[5] += 1;
                                                        }
                                                    }
                                                }

                                                else {
                                                    if (x[1] <= 19.5) {
                                                        if (x[18] <= -6.025000095367432) {
                                                            if (x[21] <= -0.4749999940395355) {
                                                                votes[19] += 1;
                                                            }

                                                            else {
                                                                votes[5] += 1;
                                                            }
                                                        }

                                                        else {
                                                            votes[11] += 1;
                                                        }
                                                    }

                                                    else {
                                                        votes[26] += 1;
                                                    }
                                                }
                                            }

                                            else {
                                                if (x[18] <= -6.299999952316284) {
                                                    if (x[0] <= 66.0) {
                                                        if (x[5] <= -13.885000228881836) {
                                                            votes[13] += 1;
                                                        }

                                                        else {
                                                            votes[5] += 1;
                                                        }
                                                    }

                                                    else {
                                                        votes[18] += 1;
                                                    }
                                                }

                                                else {
                                                    if (x[10] <= 109.88999938964844) {
                                                        if (x[11] <= 0.020000100135803223) {
                                                            votes[26] += 1;
                                                        }

                                                        else {
                                                            if (x[1] <= 28.5) {
                                                                votes[12] += 1;
                                                            }

                                                            else {
                                                                votes[4] += 1;
                                                            }
                                                        }
                                                    }

                                                    else {
                                                        votes[9] += 1;
                                                    }
                                                }
                                            }
                                        }

                                        else {
                                            if (x[6] <= 71.51499938964844) {
                                                if (x[6] <= 64.47999954223633) {
                                                    if (x[6] <= 51.15999984741211) {
                                                        if (x[1] <= 4.0) {
                                                            if (x[7] <= 53.56500053405762) {
                                                                votes[18] += 1;
                                                            }

                                                            else {
                                                                votes[13] += 1;
                                                            }
                                                        }

                                                        else {
                                                            votes[18] += 1;
                                                        }
                                                    }

                                                    else {
                                                        if (x[3] <= 75.0) {
                                                            if (x[17] <= 4.055000066757202) {
                                                                votes[8] += 1;
                                                            }

                                                            else {
                                                                votes[18] += 1;
                                                            }
                                                        }

                                                        else {
                                                            if (x[9] <= -61.75000190734863) {
                                                                votes[8] += 1;
                                                            }

                                                            else {
                                                                votes[18] += 1;
                                                            }
                                                        }
                                                    }
                                                }

                                                else {
                                                    if (x[9] <= -51.43000030517578) {
                                                        if (x[10] <= 57.755001068115234) {
                                                            if (x[3] <= 130.0) {
                                                                votes[8] += 1;
                                                            }

                                                            else {
                                                                votes[18] += 1;
                                                            }
                                                        }

                                                        else {
                                                            votes[0] += 1;
                                                        }
                                                    }

                                                    else {
                                                        votes[18] += 1;
                                                    }
                                                }
                                            }

                                            else {
                                                if (x[5] <= -0.1599999964237213) {
                                                    if (x[13] <= -1.2800000309944153) {
                                                        votes[26] += 1;
                                                    }

                                                    else {
                                                        if (x[8] <= -25.520000457763672) {
                                                            if (x[11] <= 2.519999921321869) {
                                                                votes[26] += 1;
                                                            }

                                                            else {
                                                                votes[8] += 1;
                                                            }
                                                        }

                                                        else {
                                                            if (x[10] <= 34.86000061035156) {
                                                                votes[0] += 1;
                                                            }

                                                            else {
                                                                votes[0] += 1;
                                                            }
                                                        }
                                                    }
                                                }

                                                else {
                                                    if (x[6] <= 93.54499816894531) {
                                                        if (x[19] <= 5.315000057220459) {
                                                            if (x[12] <= 7.384999752044678) {
                                                                votes[26] += 1;
                                                            }

                                                            else {
                                                                votes[0] += 1;
                                                            }
                                                        }

                                                        else {
                                                            votes[26] += 1;
                                                        }
                                                    }

                                                    else {
                                                        if (x[2] <= 43.0) {
                                                            votes[26] += 1;
                                                        }

                                                        else {
                                                            if (x[8] <= -13.804999828338623) {
                                                                votes[0] += 1;
                                                            }

                                                            else {
                                                                votes[26] += 1;
                                                            }
                                                        }
                                                    }
                                                }
                                            }
                                        }
                                    }
                                }

                                else {
                                    if (x[6] <= -75.82999801635742) {
                                        if (x[18] <= -3.9350000619888306) {
                                            votes[20] += 1;
                                        }

                                        else {
                                            votes[1] += 1;
                                        }
                                    }

                                    else {
                                        if (x[8] <= -11.954999923706055) {
                                            if (x[13] <= 8.105000019073486) {
                                                if (x[5] <= -9.46500015258789) {
                                                    votes[12] += 1;
                                                }

                                                else {
                                                    if (x[13] <= 2.1250000596046448) {
                                                        votes[26] += 1;
                                                    }

                                                    else {
                                                        votes[20] += 1;
                                                    }
                                                }
                                            }

                                            else {
                                                if (x[1] <= 26.0) {
                                                    votes[12] += 1;
                                                }

                                                else {
                                                    votes[4] += 1;
                                                }
                                            }
                                        }

                                        else {
                                            if (x[13] <= 7.224999904632568) {
                                                if (x[5] <= -3.3249998092651367) {
                                                    votes[18] += 1;
                                                }

                                                else {
                                                    votes[26] += 1;
                                                }
                                            }

                                            else {
                                                if (x[12] <= 0.4749999940395355) {
                                                    votes[4] += 1;
                                                }

                                                else {
                                                    if (x[1] <= 14.5) {
                                                        votes[18] += 1;
                                                    }

                                                    else {
                                                        votes[12] += 1;
                                                    }
                                                }
                                            }
                                        }
                                    }
                                }
                            }

                            else {
                                if (x[9] <= -91.7599983215332) {
                                    if (x[18] <= -4.079999923706055) {
                                        if (x[11] <= 3.115000009536743) {
                                            votes[11] += 1;
                                        }

                                        else {
                                            votes[24] += 1;
                                        }
                                    }

                                    else {
                                        if (x[6] <= 28.739999771118164) {
                                            if (x[3] <= 77.5) {
                                                votes[2] += 1;
                                            }

                                            else {
                                                if (x[18] <= -2.565000057220459) {
                                                    votes[25] += 1;
                                                }

                                                else {
                                                    votes[2] += 1;
                                                }
                                            }
                                        }

                                        else {
                                            if (x[9] <= -122.39500045776367) {
                                                votes[25] += 1;
                                            }

                                            else {
                                                votes[24] += 1;
                                            }
                                        }
                                    }
                                }

                                else {
                                    if (x[6] <= 83.63000106811523) {
                                        if (x[8] <= -63.67500114440918) {
                                            if (x[20] <= -0.33500000834465027) {
                                                if (x[6] <= 25.859999656677246) {
                                                    if (x[19] <= 0.39500004053115845) {
                                                        votes[2] += 1;
                                                    }

                                                    else {
                                                        if (x[5] <= -4.955000162124634) {
                                                            votes[21] += 1;
                                                        }

                                                        else {
                                                            if (x[22] <= -0.009999999776482582) {
                                                                votes[25] += 1;
                                                            }

                                                            else {
                                                                votes[15] += 1;
                                                            }
                                                        }
                                                    }
                                                }

                                                else {
                                                    if (x[17] <= 11.40999984741211) {
                                                        if (x[16] <= -2.4800000190734863) {
                                                            if (x[12] <= 5.400000095367432) {
                                                                votes[2] += 1;
                                                            }

                                                            else {
                                                                votes[25] += 1;
                                                            }
                                                        }

                                                        else {
                                                            if (x[16] <= -0.2149999961256981) {
                                                                votes[25] += 1;
                                                            }

                                                            else {
                                                                votes[2] += 1;
                                                            }
                                                        }
                                                    }

                                                    else {
                                                        if (x[1] <= 49.5) {
                                                            votes[2] += 1;
                                                        }

                                                        else {
                                                            votes[25] += 1;
                                                        }
                                                    }
                                                }
                                            }

                                            else {
                                                if (x[13] <= 8.255000114440918) {
                                                    if (x[0] <= 21.0) {
                                                        votes[21] += 1;
                                                    }

                                                    else {
                                                        if (x[1] <= 44.5) {
                                                            if (x[11] <= -0.1600000001490116) {
                                                                votes[15] += 1;
                                                            }

                                                            else {
                                                                votes[2] += 1;
                                                            }
                                                        }

                                                        else {
                                                            votes[25] += 1;
                                                        }
                                                    }
                                                }

                                                else {
                                                    if (x[12] <= -1.7600000500679016) {
                                                        votes[21] += 1;
                                                    }

                                                    else {
                                                        if (x[1] <= 42.0) {
                                                            votes[15] += 1;
                                                        }

                                                        else {
                                                            if (x[3] <= 30.0) {
                                                                votes[2] += 1;
                                                            }

                                                            else {
                                                                votes[25] += 1;
                                                            }
                                                        }
                                                    }
                                                }
                                            }
                                        }

                                        else {
                                            if (x[12] <= -8.1899995803833) {
                                                if (x[8] <= -32.31999969482422) {
                                                    if (x[7] <= 111.625) {
                                                        if (x[11] <= -1.2350000143051147) {
                                                            if (x[17] <= 6.5249998569488525) {
                                                                votes[1] += 1;
                                                            }

                                                            else {
                                                                votes[3] += 1;
                                                            }
                                                        }

                                                        else {
                                                            if (x[9] <= -44.83500099182129) {
                                                                votes[3] += 1;
                                                            }

                                                            else {
                                                                votes[1] += 1;
                                                            }
                                                        }
                                                    }

                                                    else {
                                                        if (x[9] <= -30.929999351501465) {
                                                            votes[3] += 1;
                                                        }

                                                        else {
                                                            votes[1] += 1;
                                                        }
                                                    }
                                                }

                                                else {
                                                    if (x[19] <= 7.840000152587891) {
                                                        if (x[6] <= -79.0250015258789) {
                                                            if (x[22] <= -0.2900000065565109) {
                                                                votes[20] += 1;
                                                            }

                                                            else {
                                                                votes[3] += 1;
                                                            }
                                                        }

                                                        else {
                                                            votes[20] += 1;
                                                        }
                                                    }

                                                    else {
                                                        votes[1] += 1;
                                                    }
                                                }
                                            }

                                            else {
                                                if (x[2] <= 77.0) {
                                                    if (x[12] <= -1.9699999690055847) {
                                                        if (x[17] <= 5.835000038146973) {
                                                            votes[17] += 1;
                                                        }

                                                        else {
                                                            if (x[21] <= -0.5099999904632568) {
                                                                votes[21] += 1;
                                                            }

                                                            else {
                                                                votes[22] += 1;
                                                            }
                                                        }
                                                    }

                                                    else {
                                                        if (x[7] <= 67.51499938964844) {
                                                            if (x[18] <= -5.265000104904175) {
                                                                votes[14] += 1;
                                                            }

                                                            else {
                                                                votes[5] += 1;
                                                            }
                                                        }

                                                        else {
                                                            if (x[3] <= 34.5) {
                                                                votes[5] += 1;
                                                            }

                                                            else {
                                                                votes[23] += 1;
                                                            }
                                                        }
                                                    }
                                                }

                                                else {
                                                    if (x[5] <= -13.485000133514404) {
                                                        if (x[4] <= 52.5) {
                                                            if (x[19] <= 4.194999933242798) {
                                                                votes[14] += 1;
                                                            }

                                                            else {
                                                                votes[5] += 1;
                                                            }
                                                        }

                                                        else {
                                                            if (x[3] <= 73.0) {
                                                                votes[14] += 1;
                                                            }

                                                            else {
                                                                votes[18] += 1;
                                                            }
                                                        }
                                                    }

                                                    else {
                                                        if (x[19] <= 4.019999980926514) {
                                                            votes[25] += 1;
                                                        }

                                                        else {
                                                            if (x[6] <= 30.97000026702881) {
                                                                votes[23] += 1;
                                                            }

                                                            else {
                                                                votes[5] += 1;
                                                            }
                                                        }
                                                    }
                                                }
                                            }
                                        }
                                    }

                                    else {
                                        if (x[17] <= 7.4700000286102295) {
                                            if (x[8] <= -41.60000038146973) {
                                                votes[16] += 1;
                                            }

                                            else {
                                                if (x[9] <= -21.374998092651367) {
                                                    votes[0] += 1;
                                                }

                                                else {
                                                    votes[26] += 1;
                                                }
                                            }
                                        }

                                        else {
                                            if (x[18] <= 4.629999876022339) {
                                                votes[16] += 1;
                                            }

                                            else {
                                                votes[26] += 1;
                                            }
                                        }
                                    }
                                }
                            }
                        }

                        // tree #3
                        if (x[12] <= -3.049999952316284) {
                            if (x[17] <= 9.125) {
                                if (x[8] <= -4.230000019073486) {
                                    if (x[1] <= 18.5) {
                                        if (x[12] <= -8.875) {
                                            if (x[11] <= 0.8949999809265137) {
                                                if (x[19] <= 5.684999942779541) {
                                                    votes[3] += 1;
                                                }

                                                else {
                                                    if (x[21] <= 0.19999999552965164) {
                                                        if (x[18] <= -6.115000009536743) {
                                                            votes[17] += 1;
                                                        }

                                                        else {
                                                            votes[20] += 1;
                                                        }
                                                    }

                                                    else {
                                                        votes[20] += 1;
                                                    }
                                                }
                                            }

                                            else {
                                                if (x[3] <= 5.0) {
                                                    if (x[1] <= 8.5) {
                                                        votes[3] += 1;
                                                    }

                                                    else {
                                                        if (x[8] <= -29.02999973297119) {
                                                            if (x[1] <= 12.0) {
                                                                votes[20] += 1;
                                                            }

                                                            else {
                                                                votes[11] += 1;
                                                            }
                                                        }

                                                        else {
                                                            votes[20] += 1;
                                                        }
                                                    }
                                                }

                                                else {
                                                    if (x[10] <= 41.47500038146973) {
                                                        if (x[6] <= -71.19000244140625) {
                                                            if (x[5] <= -12.154999732971191) {
                                                                votes[11] += 1;
                                                            }

                                                            else {
                                                                votes[3] += 1;
                                                            }
                                                        }

                                                        else {
                                                            if (x[19] <= -1.3849999904632568) {
                                                                votes[11] += 1;
                                                            }

                                                            else {
                                                                votes[3] += 1;
                                                            }
                                                        }
                                                    }

                                                    else {
                                                        if (x[15] <= -0.7000000178813934) {
                                                            votes[10] += 1;
                                                        }

                                                        else {
                                                            if (x[1] <= -0.5) {
                                                                votes[10] += 1;
                                                            }

                                                            else {
                                                                votes[20] += 1;
                                                            }
                                                        }
                                                    }
                                                }
                                            }
                                        }

                                        else {
                                            if (x[7] <= 85.6500015258789) {
                                                if (x[7] <= 55.48500061035156) {
                                                    if (x[21] <= -0.030000001192092896) {
                                                        votes[22] += 1;
                                                    }

                                                    else {
                                                        votes[20] += 1;
                                                    }
                                                }

                                                else {
                                                    if (x[5] <= -3.4749999046325684) {
                                                        if (x[9] <= -80.4000015258789) {
                                                            votes[11] += 1;
                                                        }

                                                        else {
                                                            votes[20] += 1;
                                                        }
                                                    }

                                                    else {
                                                        votes[3] += 1;
                                                    }
                                                }
                                            }

                                            else {
                                                if (x[13] <= 4.434999942779541) {
                                                    if (x[9] <= -46.56500053405762) {
                                                        if (x[2] <= 29.0) {
                                                            if (x[10] <= 48.755001068115234) {
                                                                votes[3] += 1;
                                                            }

                                                            else {
                                                                votes[17] += 1;
                                                            }
                                                        }

                                                        else {
                                                            votes[3] += 1;
                                                        }
                                                    }

                                                    else {
                                                        if (x[17] <= 5.770000100135803) {
                                                            votes[17] += 1;
                                                        }

                                                        else {
                                                            votes[3] += 1;
                                                        }
                                                    }
                                                }

                                                else {
                                                    if (x[19] <= 5.704999923706055) {
                                                        votes[3] += 1;
                                                    }

                                                    else {
                                                        votes[17] += 1;
                                                    }
                                                }
                                            }
                                        }
                                    }

                                    else {
                                        if (x[0] <= 2.0) {
                                            votes[1] += 1;
                                        }

                                        else {
                                            if (x[18] <= -2.555000066757202) {
                                                if (x[22] <= -0.38499999046325684) {
                                                    if (x[12] <= -6.134999990463257) {
                                                        votes[21] += 1;
                                                    }

                                                    else {
                                                        votes[22] += 1;
                                                    }
                                                }

                                                else {
                                                    if (x[8] <= -64.89999771118164) {
                                                        votes[21] += 1;
                                                    }

                                                    else {
                                                        if (x[21] <= -0.5649999976158142) {
                                                            votes[21] += 1;
                                                        }

                                                        else {
                                                            votes[22] += 1;
                                                        }
                                                    }
                                                }
                                            }

                                            else {
                                                votes[21] += 1;
                                            }
                                        }
                                    }
                                }

                                else {
                                    if (x[5] <= -3.940000057220459) {
                                        if (x[18] <= -5.585000038146973) {
                                            votes[10] += 1;
                                        }

                                        else {
                                            votes[1] += 1;
                                        }
                                    }

                                    else {
                                        if (x[12] <= -8.925000190734863) {
                                            votes[1] += 1;
                                        }

                                        else {
                                            votes[26] += 1;
                                        }
                                    }
                                }
                            }

                            else {
                                if (x[11] <= 4.580000042915344) {
                                    if (x[0] <= 8.0) {
                                        votes[22] += 1;
                                    }

                                    else {
                                        votes[21] += 1;
                                    }
                                }

                                else {
                                    votes[22] += 1;
                                }
                            }
                        }

                        else {
                            if (x[1] <= 18.5) {
                                if (x[17] <= 4.5350000858306885) {
                                    if (x[13] <= 2.9450000524520874) {
                                        if (x[6] <= 71.31499862670898) {
                                            if (x[14] <= -0.03500000014901161) {
                                                votes[8] += 1;
                                            }

                                            else {
                                                votes[6] += 1;
                                            }
                                        }

                                        else {
                                            if (x[5] <= -23.229999542236328) {
                                                votes[8] += 1;
                                            }

                                            else {
                                                votes[0] += 1;
                                            }
                                        }
                                    }

                                    else {
                                        if (x[0] <= 66.0) {
                                            if (x[9] <= -52.96000099182129) {
                                                if (x[19] <= 4.414999961853027) {
                                                    if (x[9] <= -64.07499694824219) {
                                                        if (x[17] <= 3.5299999713897705) {
                                                            if (x[8] <= -17.289999961853027) {
                                                                votes[19] += 1;
                                                            }

                                                            else {
                                                                votes[19] += 1;
                                                            }
                                                        }

                                                        else {
                                                            votes[5] += 1;
                                                        }
                                                    }

                                                    else {
                                                        if (x[2] <= 48.0) {
                                                            votes[5] += 1;
                                                        }

                                                        else {
                                                            votes[19] += 1;
                                                        }
                                                    }
                                                }

                                                else {
                                                    votes[5] += 1;
                                                }
                                            }

                                            else {
                                                if (x[6] <= 13.37000036239624) {
                                                    if (x[10] <= 73.03999710083008) {
                                                        votes[5] += 1;
                                                    }

                                                    else {
                                                        votes[13] += 1;
                                                    }
                                                }

                                                else {
                                                    votes[13] += 1;
                                                }
                                            }
                                        }

                                        else {
                                            if (x[9] <= -57.47500038146973) {
                                                if (x[17] <= 0.9549999833106995) {
                                                    votes[0] += 1;
                                                }

                                                else {
                                                    if (x[4] <= 59.0) {
                                                        votes[8] += 1;
                                                    }

                                                    else {
                                                        if (x[12] <= 7.289999961853027) {
                                                            votes[18] += 1;
                                                        }

                                                        else {
                                                            votes[8] += 1;
                                                        }
                                                    }
                                                }
                                            }

                                            else {
                                                if (x[2] <= 39.0) {
                                                    if (x[6] <= 65.73500061035156) {
                                                        votes[18] += 1;
                                                    }

                                                    else {
                                                        votes[8] += 1;
                                                    }
                                                }

                                                else {
                                                    if (x[11] <= 1.699999988079071) {
                                                        votes[8] += 1;
                                                    }

                                                    else {
                                                        votes[18] += 1;
                                                    }
                                                }
                                            }
                                        }
                                    }
                                }

                                else {
                                    if (x[6] <= 53.885000228881836) {
                                        if (x[19] <= 4.224999904632568) {
                                            if (x[13] <= 5.68999981880188) {
                                                if (x[9] <= -99.5250015258789) {
                                                    votes[24] += 1;
                                                }

                                                else {
                                                    if (x[14] <= 0.22500000149011612) {
                                                        if (x[4] <= 55.5) {
                                                            votes[5] += 1;
                                                        }

                                                        else {
                                                            votes[14] += 1;
                                                        }
                                                    }

                                                    else {
                                                        votes[14] += 1;
                                                    }
                                                }
                                            }

                                            else {
                                                if (x[2] <= 1.0) {
                                                    if (x[9] <= -63.5049991607666) {
                                                        votes[14] += 1;
                                                    }

                                                    else {
                                                        if (x[3] <= 31.0) {
                                                            if (x[18] <= -5.934999942779541) {
                                                                votes[5] += 1;
                                                            }

                                                            else {
                                                                votes[5] += 1;
                                                            }
                                                        }

                                                        else {
                                                            if (x[10] <= 33.05500030517578) {
                                                                votes[14] += 1;
                                                            }

                                                            else {
                                                                votes[5] += 1;
                                                            }
                                                        }
                                                    }
                                                }

                                                else {
                                                    if (x[17] <= 5.5299999713897705) {
                                                        if (x[21] <= -0.4150000065565109) {
                                                            votes[14] += 1;
                                                        }

                                                        else {
                                                            votes[5] += 1;
                                                        }
                                                    }

                                                    else {
                                                        if (x[18] <= -5.085000038146973) {
                                                            if (x[18] <= -6.065000057220459) {
                                                                votes[14] += 1;
                                                            }

                                                            else {
                                                                votes[14] += 1;
                                                            }
                                                        }

                                                        else {
                                                            if (x[10] <= 22.36500072479248) {
                                                                votes[14] += 1;
                                                            }

                                                            else {
                                                                votes[5] += 1;
                                                            }
                                                        }
                                                    }
                                                }
                                            }
                                        }

                                        else {
                                            if (x[13] <= 7.444999933242798) {
                                                if (x[1] <= 17.5) {
                                                    if (x[19] <= 4.670000076293945) {
                                                        if (x[11] <= 2.3049999475479126) {
                                                            votes[14] += 1;
                                                        }

                                                        else {
                                                            if (x[7] <= 66.92500305175781) {
                                                                votes[14] += 1;
                                                            }

                                                            else {
                                                                votes[5] += 1;
                                                            }
                                                        }
                                                    }

                                                    else {
                                                        if (x[1] <= 16.5) {
                                                            if (x[7] <= 71.88500213623047) {
                                                                votes[14] += 1;
                                                            }

                                                            else {
                                                                votes[14] += 1;
                                                            }
                                                        }

                                                        else {
                                                            if (x[18] <= -4.2500001192092896) {
                                                                votes[5] += 1;
                                                            }

                                                            else {
                                                                votes[14] += 1;
                                                            }
                                                        }
                                                    }
                                                }

                                                else {
                                                    if (x[6] <= 42.79999923706055) {
                                                        votes[5] += 1;
                                                    }

                                                    else {
                                                        votes[14] += 1;
                                                    }
                                                }
                                            }

                                            else {
                                                if (x[6] <= 12.09499979019165) {
                                                    votes[23] += 1;
                                                }

                                                else {
                                                    if (x[10] <= 29.264999389648438) {
                                                        votes[23] += 1;
                                                    }

                                                    else {
                                                        if (x[5] <= -12.529999732971191) {
                                                            votes[5] += 1;
                                                        }

                                                        else {
                                                            if (x[18] <= -5.759999990463257) {
                                                                votes[14] += 1;
                                                            }

                                                            else {
                                                                votes[5] += 1;
                                                            }
                                                        }
                                                    }
                                                }
                                            }
                                        }
                                    }

                                    else {
                                        if (x[3] <= 107.5) {
                                            if (x[6] <= 73.90999984741211) {
                                                if (x[11] <= 4.299999952316284) {
                                                    if (x[19] <= 2.5199999809265137) {
                                                        if (x[19] <= -0.8000000715255737) {
                                                            votes[24] += 1;
                                                        }

                                                        else {
                                                            if (x[4] <= 11.5) {
                                                                votes[5] += 1;
                                                            }

                                                            else {
                                                                votes[14] += 1;
                                                            }
